{"type":"NeuralNetwork","sizes":[25,12,10],"layers":[{"weights":[],"biases":[]},{"weights":[[0.2192491590976715,-0.07643488794565201,1.3098459243774414,-0.4968039095401764,0.4677670896053314,0.07707472890615463,-0.17845650017261505,-0.11535229533910751,-0.43677955865859985,0.08700060099363327,-0.13645489513874054,-0.16264089941978455,-1.4217299222946167,1.450302004814148,-0.11943203210830688,-0.9879231452941895,0.07189488410949707,0.34807226061820984,0.18090352416038513,0.6144487261772156,0.6548550724983215,-0.13848142325878143,0.7066365480422974,0.7057066559791565,0.49420079588890076],[0.7305229902267456,-0.2724902629852295,0.14054857194423676,1.3805688619613647,0.8543220162391663,-1.1326466798782349,0.120294950902462,-0.4840116500854492,-1.200455665588379,0.8930805921554565,-0.39079102873802185,-1.2601433992385864,-0.2269401252269745,0.30774375796318054,0.013290577568113804,0.4082085192203522,-0.5855408906936646,0.5528057813644409,-0.12809345126152039,0.6557599306106567,0.5125004053115845,1.1861212253570557,0.24924634397029877,0.1840541958808899,0.35187557339668274],[0.5411081910133362,0.28079134225845337,-2.036219835281372,0.055746980011463165,-0.4938429296016693,-0.5540142059326172,0.7741580605506897,0.03370426222681999,-0.7929908037185669,-0.997093141078949,0.18436400592327118,-0.6707422733306885,0.8548197150230408,0.1813683956861496,1.35488760471344,0.5919020771980286,0.85735023021698,0.7510333061218262,-0.6450990438461304,-0.49434828758239746,-0.4956284463405609,-0.4450882375240326,-0.0179973766207695,-0.24657052755355835,-0.06872635334730148],[-0.7533301711082458,0.8198563456535339,0.5901288986206055,-0.07384070008993149,0.06871869415044785,-0.9877697229385376,-0.8455251455307007,0.8180311322212219,-0.14881373941898346,1.0653716325759888,1.0516026020050049,-0.9561732411384583,-1.3258918523788452,-0.8481420874595642,-0.007322125136852264,0.03479553759098053,2.1066901683807373,0.6743001937866211,-0.7031801342964172,-0.009213038720190525,0.10744567960500717,0.33047717809677124,0.008753838948905468,0.020859217271208763,-0.002474483335390687],[-0.14371713995933533,0.21425411105155945,0.3376419246196747,-2.2747974395751953,-1.3480682373046875,-0.2179802507162094,0.9470778703689575,0.28716057538986206,0.9857853651046753,-0.6981770396232605,0.19513338804244995,-0.3954496383666992,0.15921145677566528,1.080973505973816,0.4750747084617615,-0.9569863677024841,0.24942220747470856,-0.25552085041999817,0.4561786949634552,-0.7318223118782043,1.2229598760604858,-1.8096081018447876,0.3548961877822876,0.5898771286010742,0.42180517315864563],[1.063994288444519,-0.17629720270633698,-1.0590087175369263,-0.5378729104995728,0.0720096230506897,-0.8058068156242371,1.1198885440826416,-0.31703683733940125,1.4760767221450806,-1.0773271322250366,0.004225740674883127,-1.0776973962783813,1.4163997173309326,-0.0985100194811821,0.34609365463256836,-0.7567003965377808,-0.19894437491893768,0.5343013405799866,1.5298970937728882,0.04339604824781418,-0.30091965198516846,-0.5141962170600891,-0.4735826551914215,-0.4226127564907074,-0.11656885594129562],[0.8316684365272522,-0.2873746156692505,0.23668406903743744,0.4512324333190918,0.7142058610916138,-0.24381251633167267,0.2578425407409668,-0.42650461196899414,1.0500247478485107,-0.9474390149116516,-0.45366618037223816,-0.23281466960906982,-0.09808120876550674,-0.046499982476234436,-0.8878206610679626,-0.1785801351070404,-0.5861810445785522,-0.029725588858127594,1.294554352760315,0.3688488304615021,-0.11555711179971695,-0.07576179504394531,0.24103884398937225,-0.10489393025636673,0.10848622769117355],[-0.26781317591667175,0.4176594316959381,-1.6167316436767578,0.151162251830101,-0.10885944217443466,1.4143931865692139,0.2475905865430832,0.47130417823791504,-0.5418245792388916,-0.6688430309295654,0.4353480935096741,1.3651913404464722,-0.471340537071228,-0.04926278814673424,-0.19792009890079498,0.7280875444412231,0.9265009760856628,0.33592483401298523,-1.210860252380371,-0.20893563330173492,-0.6385071873664856,-0.32939574122428894,-0.14158402383327484,0.012194100767374039,-0.0795750543475151],[-0.4740767180919647,0.3721274137496948,0.8987479209899902,0.8208624720573425,0.5584399700164795,0.7989814877510071,-1.2564054727554321,0.39224663376808167,0.7450910806655884,0.8734540939331055,0.4554623067378998,0.9285793900489807,1.4935669898986816,-1.5512405633926392,-1.1128714084625244,0.21749413013458252,-1.1724345684051514,-2.122352361679077,0.56675124168396,0.29667162895202637,-0.40417391061782837,1.1094571352005005,-0.10167457163333893,-0.036470651626586914,0.19278794527053833],[0.7650460600852966,-0.04686334729194641,-1.0324244499206543,1.4678908586502075,0.4662483334541321,-0.2860013544559479,0.3957459628582001,0.015971079468727112,-0.7731594443321228,1.3008500337600708,-0.15921424329280853,-0.28496018052101135,0.9633677005767822,-1.1574839353561401,-0.05977276712656021,1.0567419528961182,-1.075276494026184,-0.2641806900501251,-0.2480940818786621,-0.15248242020606995,0.3594435155391693,1.3617953062057495,-0.6097909212112427,-0.6717143654823303,-0.6114494204521179],[-1.3248564004898071,-0.9472430348396301,0.2853337824344635,-0.8921013474464417,-0.6943941712379456,-0.40237748622894287,-0.6113939881324768,-0.9796586632728577,-0.963575005531311,1.4329962730407715,-0.8906062245368958,-0.5286437273025513,-0.349014014005661,-0.9693713188171387,1.3533047437667847,-0.26292943954467773,0.21344824135303497,-0.04888111352920532,-1.6249842643737793,-0.5324887633323669,0.37411341071128845,0.20906080305576324,-0.04146751016378403,0.023910678923130035,-0.19090598821640015],[0.5261162519454956,-0.5406941175460815,0.27158960700035095,0.9406895637512207,0.4060622453689575,0.5664551258087158,0.19572468101978302,-0.4731757640838623,-0.1614631563425064,-0.8472301363945007,-0.46758460998535156,0.4469004273414612,-0.998796284198761,1.6845723390579224,-1.2704020738601685,0.3455716073513031,-0.5990563035011292,0.10235456377267838,0.3516862988471985,0.5065560340881348,0.21997785568237305,0.34100228548049927,0.5185268521308899,0.5427894592285156,0.6724520921707153]],"biases":[-0.38481542468070984,-0.3430163264274597,0.21619515120983124,-0.13347209990024567,0.5039766430854797,-0.23310622572898865,-0.09158873558044434,0.04796864837408066,0.37187063694000244,0.20305787026882172,0.6426352858543396,-0.057714007794857025]},{"weights":[[0.9717637896537781,1.8851646184921265,-1.7978297472000122,-1.22415030002594,-3.1252799034118652,-0.6000614762306213,0.7780733108520508,-1.7657212018966675,-0.21793124079704285,-0.08031253516674042,-2.068174362182617,1.2406482696533203],[0.11607901751995087,0.16349276900291443,0.8450095057487488,-2.238403081893921,1.5439265966415405,1.4768741130828857,0.12828810513019562,-0.5770871043205261,-3.7035577297210693,-0.5294025540351868,-2.0650227069854736,0.6769209504127502],[-0.8987802863121033,-2.098271131515503,-0.36769911646842957,1.7694388628005981,-0.07389405369758606,-1.3114509582519531,-1.8389275074005127,1.7339932918548584,0.15754911303520203,-1.2080714702606201,-2.456577777862549,-1.35550856590271],[-0.9742061495780945,-1.9031776189804077,-1.7201805114746094,-1.1988741159439087,1.0071539878845215,1.8728886842727661,1.2178864479064941,-2.1994917392730713,1.6335159540176392,-1.1630700826644897,-0.7684566974639893,-1.0389225482940674],[0.3117713928222656,0.5956610441207886,-2.3754029273986816,0.8634406924247742,-0.4966021478176117,-2.1721620559692383,-1.3574678897857666,-2.0260043144226074,0.9304418563842773,0.466578871011734,2.427917003631592,-1.1533383131027222],[-2.6358227729797363,0.6433327198028564,0.5771068930625916,-0.960895299911499,-3.365844488143921,-1.0459827184677124,-0.7025023698806763,0.01775910146534443,0.904774010181427,2.4815526008605957,-0.2586805522441864,-0.4665934443473816],[-0.2712991237640381,-2.1277918815612793,-1.2123295068740845,-2.638796806335449,-0.6857309937477112,-1.4273486137390137,-0.2659624218940735,2.0070669651031494,0.5767062306404114,-0.21666963398456573,0.1024017408490181,0.8759695291519165],[-1.8381423950195312,-0.7787488102912903,1.548330307006836,-2.0434672832489014,0.03804868832230568,1.1476081609725952,-1.286289930343628,-1.2959058284759521,-0.2061009258031845,0.8572638630867004,1.2598830461502075,-2.6253199577331543],[-0.46049946546554565,-0.6330978870391846,1.1831954717636108,1.4971338510513306,-0.1919933557510376,-0.15111595392227173,-0.9463319182395935,0.2586309313774109,-3.724961042404175,-1.1938155889511108,1.755213975906372,-1.2108138799667358],[1.9580159187316895,-0.38272371888160706,-1.4114419221878052,-0.9500524997711182,1.7647336721420288,-1.8066766262054443,-0.6390154957771301,-1.2449631690979004,-1.053871989250183,-3.2381157875061035,0.40617087483406067,1.3612985610961914]],"biases":[-0.8280383348464966,-1.1964102983474731,-0.18451444804668427,-0.6141172051429749,-1.2836296558380127,-0.759332001209259,-0.4279050827026367,-0.8800162672996521,-0.4738675653934479,-0.8008061647415161]}],"inputLookup":{"s1":0,"s2":1,"s3":2,"s4":3,"s5":4,"s6":5,"s7":6,"s8":7,"s9":8,"s10":9,"s11":10,"s12":11,"s13":12,"s14":13,"s15":14,"s16":15,"s17":16,"s18":17,"s19":18,"s20":19,"s21":20,"s22":21,"s23":22,"s24":23,"s25":24},"inputLookupLength":25,"outputLookup":{"e1":0,"e2":1,"e3":2,"e4":3,"e5":4,"e6":5,"e7":6,"e8":7,"e9":8,"e10":9},"outputLookupLength":10,"options":{"inputSize":0,"outputSize":0,"binaryThresh":0.5},"trainOpts":{"activation":"sigmoid","iterations":20000,"errorThresh":0.005,"log":false,"logPeriod":10,"leakyReluAlpha":0.01,"learningRate":0.3,"momentum":0.1,"callbackPeriod":10,"timeout":"Infinity","beta1":0.9,"beta2":0.999,"epsilon":1e-8}}