{"type":"NeuralNetwork","sizes":[25,12,10],"layers":[{"weights":[],"biases":[]},{"weights":[[-1.0240296125411987,-0.8036996722221375,-0.9616522192955017,-0.2937951982021332,-0.606767475605011,0.18508832156658173,-0.37292924523353577,-0.8263267874717712,1.0622800588607788,-0.517658531665802,-0.8319754004478455,0.16064000129699707,1.4602373838424683,-1.474279761314392,0.8379512429237366,-0.08406458795070648,-0.11311668157577515,-0.27732574939727783,-0.07207637280225754,-0.5694126486778259,-1.0558022260665894,0.04989952966570854,-0.4644550085067749,-0.3166918456554413,-0.554876446723938],[0.7754446268081665,-0.16822010278701782,0.7657835483551025,1.1197420358657837,0.9329841136932373,-1.2181804180145264,-0.33855029940605164,-0.24142543971538544,-1.1024128198623657,0.5503266453742981,-0.4579642713069916,-1.2692902088165283,-0.949609100818634,-0.13282985985279083,-0.4695245325565338,0.4776003062725067,-0.29438456892967224,0.3084883987903595,-0.037719834595918655,0.7603684663772583,0.07058843225240707,0.8710898756980896,0.14169903099536896,0.3683355748653412,0.10677237063646317],[-0.6550370454788208,1.1280759572982788,0.8091064095497131,-0.8678330779075623,-0.811124324798584,-0.8496005535125732,0.003983071073889732,1.0704689025878906,0.42470887303352356,1.0565005540847778,1.162471055984497,-0.8390536904335022,-0.8414411544799805,0.10554639995098114,-0.7708326578140259,-0.2426941990852356,1.2963191270828247,-0.15299803018569946,-0.17556238174438477,-0.512335479259491,0.7949475646018982,0.0764189288020134,0.3704690933227539,0.3194412887096405,0.09642572700977325],[1.0907269716262817,0.2810506820678711,-0.6348075866699219,0.9497095346450806,0.35280680656433105,1.245498538017273,0.7963243126869202,0.581405758857727,0.03805478662252426,0.33924946188926697,0.4290843605995178,1.1087974309921265,-0.03795778378844261,-0.3302268981933594,-1.721896767616272,0.5434573292732239,-0.9905422925949097,-0.43118107318878174,0.37409064173698425,0.12056083232164383,0.5995766520500183,0.6286700367927551,-0.08930052071809769,-0.1332220584154129,-0.09419114142656326],[0.9268974661827087,-0.4713279902935028,0.1534394472837448,1.3529188632965088,0.6035475134849548,-0.6401462554931641,0.05747995898127556,-0.22473135590553284,0.46136754751205444,0.9209035038948059,-0.2934318780899048,-0.7452207803726196,0.31006327271461487,-1.8082953691482544,-1.00143301486969,0.404540479183197,-0.3939458131790161,0.12648658454418182,0.6040868163108826,0.3390430212020874,-0.1145065650343895,1.1428179740905762,-0.37782618403434753,-0.40292853116989136,-0.543505072593689],[-1.1185460090637207,0.7847792506217957,0.5976316928863525,0.5314934849739075,-0.1591130942106247,-1.0951311588287354,-0.7434196472167969,0.5270819664001465,0.6285890936851501,-0.2307800054550171,0.6941013932228088,-1.1265852451324463,0.605826199054718,-0.6989126801490784,-0.46818089485168457,0.7506091594696045,1.2008031606674194,-0.7215790748596191,-0.19745497405529022,-0.19670520722866058,-0.882626473903656,0.8820333480834961,0.2577124536037445,0.11981304734945297,0.2142976075410843],[0.6049991250038147,-0.2584598660469055,0.10195668786764145,-0.565820574760437,-0.2039647400379181,0.10409720987081528,0.7075294852256775,-0.20283930003643036,0.4963904321193695,-1.6259268522262573,-0.5028334259986877,-0.10336462408304214,1.5054291486740112,2.0976321697235107,0.051314182579517365,-0.41743791103363037,-1.7153340578079224,-0.3026607632637024,1.345835566520691,-0.2649434208869934,0.09012649953365326,-1.0202916860580444,0.4578085243701935,0.7529054284095764,0.6776328682899475],[-1.6713590621948242,-0.6137375235557556,1.5334680080413818,-1.6730577945709229,-0.8701120615005493,0.22637327015399933,-1.0148264169692993,-0.6429962515830994,0.46012982726097107,1.1253340244293213,-0.3941453695297241,0.1392279714345932,-0.1117459237575531,-0.11618132889270782,0.5915938019752502,-0.9095015525817871,-0.8448175191879272,-1.0814207792282104,-0.48150256276130676,-0.3541294038295746,0.7801850438117981,-0.37745144963264465,0.1697869449853897,0.4041259288787842,0.5326757431030273],[-0.1533716768026352,0.3961085379123688,0.5087233185768127,-0.36574384570121765,0.3067546486854553,0.5074641704559326,-0.20744673907756805,0.30852168798446655,-0.5377494096755981,-0.4967160224914551,0.33307284116744995,0.20205652713775635,-2.191460371017456,0.9748930931091309,0.5890113711357117,-0.7706649303436279,1.5674480199813843,1.286957025527954,-0.37867531180381775,0.1838483065366745,-0.09184486418962479,-1.3263952732086182,0.38360777497291565,0.32008394598960876,0.4781309962272644],[-0.07616136968135834,0.44965818524360657,-2.1734955310821533,0.7131488919258118,-0.37697193026542664,0.9821872711181641,-0.06679074466228485,0.16434016823768616,-1.0382518768310547,-0.21808171272277832,0.32562020421028137,0.994426429271698,0.9232107996940613,-0.7339183688163757,0.7066466808319092,1.0925791263580322,0.028655795380473137,-0.2941763401031494,-1.2995043992996216,-0.23746131360530853,-0.9939835667610168,0.6420125365257263,-0.4184378385543823,-0.18778598308563232,-0.3993387818336487],[0.13917578756809235,-0.16433383524417877,-1.4760456085205078,-0.14717432856559753,-0.8234614133834839,-1.2778328657150269,0.7179237008094788,-0.47882816195487976,0.009307967498898506,-1.2198426723480225,-0.5037040114402771,-1.0700504779815674,0.8879988193511963,1.3969017267227173,1.09335196018219,0.2440343201160431,0.5035045146942139,0.9146178960800171,0.17744816839694977,-0.8580436706542969,-0.26834848523139954,-0.9058181047439575,0.08307445794343948,-0.016626594588160515,0.3626467287540436],[0.8674066662788391,-0.3377525210380554,-0.6310887932777405,-0.3849048614501953,0.09824731945991516,0.1705675572156906,0.6057571172714233,-0.416254460811615,-0.9753947257995605,1.101042628288269,-0.35034313797950745,-0.0671270340681076,-0.6505107879638672,-0.27174320816993713,1.402496337890625,-0.5186163187026978,0.23091299831867218,0.9443498253822327,-0.3368419110774994,0.05378011241555214,0.8644856214523315,-0.20021432638168335,-0.05208209529519081,-0.2896244525909424,-0.018103837966918945]],"biases":[0.5721693634986877,-0.22913578152656555,-0.08528170734643936,0.055499594658613205,-0.04686224088072777,0.42829036712646484,-0.22405441105365753,0.34336915612220764,-0.0384284183382988,0.10197766125202179,0.2630360424518585,0.049222882837057114]},{"weights":[[-1.8510477542877197,2.5413944721221924,-1.984950304031372,0.23426935076713562,1.768228530883789,-0.6174601316452026,-0.8560777902603149,-2.151540517807007,-0.8800457715988159,-1.2448914051055908,-1.8645284175872803,-0.06643074750900269],[-1.8318297863006592,-0.4608580768108368,-0.6416611075401306,0.6980576515197754,-0.9448283314704895,-2.7851734161376953,1.9987930059432983,-2.124673366546631,-0.24315433204174042,-1.252739667892456,1.7593668699264526,0.9805545210838318],[-1.4682667255401611,-1.9063597917556763,2.021008253097534,0.31314560770988464,-1.693686604499817,-0.2521415948867798,-2.0020265579223633,-1.458296298980713,1.1072182655334473,0.8028077483177185,-1.6104552745819092,-0.38174664974212646],[1.4691516160964966,-1.5138638019561768,-0.20221184194087982,-0.9679028391838074,0.2753559350967407,1.0580278635025024,0.6562117338180542,0.8413782119750977,-1.846486210823059,-2.565131425857544,-0.45248696208000183,-2.1121091842651367],[-0.9773493409156799,0.6721305251121521,1.2556836605072021,-0.6629494428634644,0.4343404471874237,-0.2812883257865906,-2.669846296310425,2.624018430709839,-0.9927299618721008,-1.494407296180725,-2.4181628227233887,0.7857603430747986],[0.5070509910583496,0.14482174813747406,-0.9916471242904663,0.24191084504127502,0.8973410725593567,1.318479061126709,-1.19001042842865,-2.1986889839172363,-2.8488681316375732,1.957958459854126,0.2059527188539505,-1.5808993577957153],[0.8608480095863342,-2.0554988384246826,-2.242730140686035,1.167431354522705,-1.0279124975204468,-2.760529041290283,-0.32050102949142456,0.7352331876754761,0.09147638082504272,1.0788427591323853,-1.7731891870498657,0.26794636249542236],[1.2826497554779053,-1.6078232526779175,-2.1692090034484863,-2.252164602279663,-1.0868420600891113,-0.4806751012802124,0.5968494415283203,0.2620433270931244,-1.820555329322815,1.0993238687515259,1.2487038373947144,0.28041964769363403],[0.8299870491027832,-0.3314013183116913,-0.3309815526008606,-2.676171064376831,-0.6474810242652893,-0.14255453646183014,-2.6133038997650146,-0.5964261889457703,2.082123279571533,-0.15996558964252472,1.4172621965408325,1.1256892681121826],[-1.9886276721954346,0.04697910323739052,0.19560790061950684,-1.9617174863815308,-2.854888916015625,-0.14187124371528625,1.4768588542938232,1.6326576471328735,1.2078046798706055,-2.250911235809326,0.0141762001439929,-1.1771715879440308]],"biases":[-0.21602964401245117,-0.8450953364372253,-0.7410789728164673,-0.2912575900554657,-1.08955979347229,-1.2377655506134033,-0.2661341726779938,-1.026381015777588,-1.4360467195510864,-0.3877173662185669]}],"inputLookup":{"s1":0,"s2":1,"s3":2,"s4":3,"s5":4,"s6":5,"s7":6,"s8":7,"s9":8,"s10":9,"s11":10,"s12":11,"s13":12,"s14":13,"s15":14,"s16":15,"s17":16,"s18":17,"s19":18,"s20":19,"s21":20,"s22":21,"s23":22,"s24":23,"s25":24},"inputLookupLength":25,"outputLookup":{"e1":0,"e2":1,"e3":2,"e4":3,"e5":4,"e6":5,"e7":6,"e8":7,"e9":8,"e10":9},"outputLookupLength":10,"options":{"inputSize":0,"outputSize":0,"binaryThresh":0.5},"trainOpts":{"activation":"sigmoid","iterations":20000,"errorThresh":0.005,"log":false,"logPeriod":10,"leakyReluAlpha":0.01,"learningRate":0.3,"momentum":0.1,"callbackPeriod":10,"timeout":"Infinity","beta1":0.9,"beta2":0.999,"epsilon":1e-8}}