{"type":"NeuralNetwork","sizes":[17,3,10],"layers":[{"weights":[],"biases":[]},{"weights":[[-1.767989993095398,0.3560609817504883,0.6231663227081299,-4.625348091125488,-0.8668994307518005,-0.1536005139350891,-0.8919420838356018,0.6294729709625244,1.2363908290863037,1.8519171476364136,0.6336531639099121,-0.3564472496509552,1.4756273031234741,-3.371093511581421,1.0790231227874756,0.15466788411140442,1.8942451477050781],[0.33279913663864136,0.046700384467840195,0.7896926999092102,3.024005651473999,1.9601202011108398,0.36771515011787415,-1.536199688911438,0.32097119092941284,1.5484901666641235,-0.5636589527130127,0.04453148692846298,0.38881129026412964,3.2244625091552734,-1.908115267753601,-2.2506189346313477,1.8383381366729736,-2.0684151649475098],[-0.7128923535346985,-1.0719629526138306,3.916628360748291,-0.736567497253418,0.7586387991905212,-1.3559906482696533,-1.6802698373794556,-0.9361650347709656,0.571363091468811,1.598500370979309,-0.971108078956604,-1.5797085762023926,-1.649701476097107,0.09002824872732162,0.8147898316383362,-2.2910003662109375,0.07458416372537613]],"biases":[0.6796004772186279,-0.8698990345001221,-0.5838934183120728]},{"weights":[[-5.888164520263672,3.318218469619751,3.2907493114471436],[-4.814780235290527,-4.357043266296387,-3.319596529006958],[4.218796253204346,-4.669185161590576,-6.539046287536621],[2.4883272647857666,3.388120174407959,2.267434597015381],[2.42141056060791,-1.692378282546997,4.4244208335876465],[-5.1021623611450195,4.296072483062744,-5.022950172424316],[0.36398079991340637,-0.08405796438455582,-2.2927114963531494],[3.188443422317505,3.51409912109375,-4.00673246383667],[3.233649253845215,-8.47896671295166,1.916964054107666],[-3.600721836090088,-4.78698205947876,5.039501190185547]],"biases":[-4.708669662475586,2.0272767543792725,-2.07123064994812,-7.10834264755249,-5.890319347381592,-2.008706569671631,-1.653566598892212,-5.269739151000977,-3.4059548377990723,-2.306265115737915]}],"inputLookup":null,"inputLookupLength":0,"outputLookup":{"leucemia":0,"linfoma":1,"tsc":2,"neuroblastoma":3,"tumoresOseos":4,"sarcomas":5,"retinoblastomas":6,"tcg":7,"tumorHepatico":8,"histiocitosis":9},"outputLookupLength":10,"options":{"inputSize":0,"outputSize":0,"binaryThresh":0.5,"hiddenLayers":[3]},"trainOpts":{"activation":"sigmoid","iterations":1000,"errorThresh":0.005,"log":true,"logPeriod":10,"leakyReluAlpha":0.01,"learningRate":0.3,"momentum":0.1,"callbackPeriod":10,"timeout":"Infinity","beta1":0.9,"beta2":0.999,"epsilon":1e-8}}