{"type":"NeuralNetwork","sizes":[17,8,10],"layers":[{"weights":[],"biases":[]},{"weights":[[0.5895534753799438,-0.37193360924720764,-0.09273719042539597,1.009366512298584,0.44119513034820557,-1.0990848541259766,0.2553158700466156,-0.38092759251594543,-1.8228052854537964,-0.07135782390832901,-0.3303832709789276,-1.309531569480896,-0.5152837038040161,2.1597070693969727,-0.5753437280654907,1.5075477361679077,-0.6843227744102478],[0.030418790876865387,-0.5845568776130676,-0.36382582783699036,-2.4444289207458496,-0.7869346737861633,0.4254721403121948,1.1481927633285522,-0.8118478655815125,0.17643652856349945,-1.7731201648712158,-0.7378954887390137,0.25815093517303467,0.1980939358472824,2.1245102882385254,-0.18039000034332275,-0.21364399790763855,-0.5785725116729736],[-1.544701099395752,0.1995151937007904,1.4847724437713623,-1.8078919649124146,-0.3330473303794861,0.9908636212348938,-1.0176749229431152,0.14588351547718048,-0.1213659718632698,1.1994259357452393,0.1474991738796234,1.013008713722229,-1.1123193502426147,-0.6479630470275879,0.4969463348388672,-0.9204296469688416,0.631263256072998],[0.15374916791915894,1.4653551578521729,1.9077101945877075,3.7529282569885254,1.0242527723312378,-0.5324748754501343,-1.0055590867996216,1.4537564516067505,0.4222080111503601,1.6707303524017334,1.3891552686691284,-0.6099908351898193,-0.2178882509469986,-1.302645206451416,-0.6700685024261475,-0.4602484107017517,0.5282071232795715],[1.9531887769699097,-0.012256988324224949,-2.390852928161621,1.2502375841140747,1.114205241203308,0.5658915042877197,0.7907083630561829,0.006844830233603716,-0.3686450123786926,-0.670703113079071,-0.11258743703365326,0.7322492003440857,-0.697909951210022,-0.16000375151634216,1.5362679958343506,-0.40039777755737305,1.5732290744781494],[-1.21306574344635,-0.8043141961097717,-0.38594159483909607,0.3219502568244934,-0.8310878872871399,0.3175521790981293,-0.571428656578064,-0.6811534762382507,-1.2558540105819702,0.8182653188705444,-0.6682055592536926,0.4677635431289673,0.4557010531425476,-0.6045591235160828,-0.6769679188728333,1.8353354930877686,-1.533607840538025],[-0.1284606009721756,-0.85960853099823,-0.3766652047634125,-1.139387607574463,-0.7509603500366211,-1.084557294845581,0.23358529806137085,-0.6674997210502625,1.4418586492538452,0.78252112865448,-0.6235511302947998,-1.133571743965149,1.5396476984024048,-2.0762743949890137,1.0595130920410156,0.38159722089767456,0.39426952600479126],[0.16435591876506805,0.877515435218811,-1.558279275894165,0.08083309978246689,-0.657871425151825,1.188901424407959,0.8742454051971436,0.7947429418563843,1.1829220056533813,-1.2328426837921143,0.96798175573349,1.4158235788345337,2.368478536605835,-0.39121919870376587,-1.5373430252075195,1.1337491273880005,-1.076831579208374]],"biases":[0.3330751359462738,0.6556538939476013,0.8242774605751038,-1.1622605323791504,0.19657352566719055,0.25913095474243164,0.26370084285736084,0.01999455876648426]},{"weights":[[1.1101077795028687,-1.8416732549667358,-2.4336142539978027,2.122554302215576,0.5173821449279785,-1.38473641872406,-2.564530372619629,-2.0807690620422363],[0.5951764583587646,2.0880887508392334,-3.0177078247070312,-3.351808547973633,1.0288608074188232,-1.6329917907714844,-1.3453750610351562,-0.04944179579615593],[-2.4537904262542725,-1.6891956329345703,0.6502533555030823,1.1567448377609253,0.4566182494163513,-2.9470176696777344,-2.0563104152679443,1.9875599145889282],[-3.259612560272217,-0.13380561769008636,0.057908494025468826,-0.01597856916487217,-3.0544066429138184,-1.1402939558029175,2.189027786254883,1.3889621496200562],[-1.1263561248779297,-2.3597192764282227,1.8675135374069214,1.84019935131073,-2.707709312438965,0.4936063587665558,0.4482964873313904,-3.3854916095733643],[0.006285825278609991,-3.380303144454956,-3.315842866897583,1.58182954788208,-0.590624988079071,1.8548108339309692,-0.08231763541698456,1.5900065898895264],[-2.3206610679626465,0.7447124719619751,1.3504841327667236,-3.307669162750244,0.055187541991472244,0.9545236229896545,-1.469262719154358,1.3529168367385864],[-0.1458505243062973,-0.17739011347293854,-1.6503688097000122,-3.882549524307251,-1.9898607730865479,2.148531913757324,1.5490270853042603,1.3431645631790161],[-1.8640296459197998,-0.43684694170951843,0.8877443075180054,-2.133074998855591,2.245121479034424,-1.4992929697036743,1.747786283493042,-3.055908441543579],[1.2428356409072876,1.963453769683838,1.0209836959838867,-1.4593771696090698,-3.3321852684020996,-0.2225949913263321,-2.655062437057495,-2.0297136306762695]],"biases":[-0.3939846456050873,-0.8452131748199463,-1.4235889911651611,-0.9323259592056274,-0.9150326251983643,-2.07303786277771,-1.7142236232757568,-1.5240603685379028,-0.8399250507354736,-0.6017478704452515]}],"inputLookup":null,"inputLookupLength":0,"outputLookup":{"leucemia":0,"linfoma":1,"tsc":2,"neuroblastoma":3,"tumoresOseos":4,"sarcomas":5,"retinoblastomas":6,"tcg":7,"tumorHepatico":8,"histiocitosis":9},"outputLookupLength":10,"options":{"inputSize":0,"outputSize":0,"binaryThresh":0.5},"trainOpts":{"activation":"sigmoid","iterations":20000,"errorThresh":0.005,"log":false,"logPeriod":10,"leakyReluAlpha":0.01,"learningRate":0.3,"momentum":0.1,"callbackPeriod":10,"timeout":"Infinity","beta1":0.9,"beta2":0.999,"epsilon":1e-8}}